<?xml version="1.0"?>
<opencv_storage>
<cascade>
  <stageType>BOOST</stageType>
  <featureType>HAAR</featureType>
  <height>24</height>
  <width>24</width>
  <stageParams>
    <boostType>GAB</boostType>
    <minHitRate>9.9500000476837158e-01</minHitRate>
    <maxFalseAlarm>5.0000000000000000e-01</maxFalseAlarm>
    <weightTrimRate>9.4999998807907104e-01</weightTrimRate>
    <maxDepth>1</maxDepth>
    <maxWeakCount>100</maxWeakCount></stageParams>
  <featureParams>
    <maxCatCount>0</maxCatCount>
    <featSize>1</featSize>
    <mode>BASIC</mode></featureParams>
  <stageNum>15</stageNum>
  <stages>
    <!-- stage 0 -->
    <_>
      <maxWeakCount>4</maxWeakCount>
      <stageThreshold>-1.9674800634384155e+00</stageThreshold>
      <weakClassifiers>
        <_>
          <internalNodes>
            0 -1 59 3.9772652089595795e-02</internalNodes>
          <leafValues>
            -9.4005888700485229e-01 4.7993019223213196e-01</leafValues></_>
        <_>
          <internalNodes>
            0 -1 73 9.2044435441493988e-03</internalNodes>
          <leafValues>
            -7.9110705852508545e-01 4.2638659477233887e-01</leafValues></_>
        <_>
          <internalNodes>
            0 -1 6 -1.0076880455017090e-01</internalNodes>
          <leafValues>
            8.5265827178955078e-01 -5.5495798587799072e-01</leafValues></_>
        <_>
          <internalNodes>
            0 -1 74 -9.8567500710487366e-02</internalNodes>
          <leafValues>
            4.6849906444549561e-01 -8.9884978532791138e-01</leafValues></_></weakClassifiers></_>
    <!-- stage 1 -->
    <_>
      <maxWeakCount>4</maxWeakCount>
      <stageThreshold>-1.7198035717010498e+00</stageThreshold>
      <weakClassifiers>
        <_>
          <internalNodes>
            0 -1 79 5.6730814278125763e-02</internalNodes>
          <leafValues>
            -9.4262069463729858e-01 2.6131385564804077e-01</leafValues></_>
        <_>
          <internalNodes>
            0 -1 34 2.7219854295253754e-02</internalNodes>
          <leafValues>
            -7.3793822526931763e-01 4.7462013363838196e-01</leafValues></_>
        <_>
          <internalNodes>
            0 -1 41 -5.9122825041413307e-03</internalNodes>
          <leafValues>
            4.0902215242385864e-01 -8.0387628078460693e-01</leafValues></_>
        <_>
          <internalNodes>
            0 -1 4 -1.1147694289684296e-01</internalNodes>
          <leafValues>
            8.2383137941360474e-01 -4.3930301070213318e-01</leafValues></_></weakClassifiers></_>
    <!-- stage 2 -->
    <_>
      <maxWeakCount>5</maxWeakCount>
      <stageThreshold>-1.7127472162246704e+00</stageThreshold>
      <weakClassifiers>
        <_>
          <internalNodes>
            0 -1 9 5.8502387255430222e-03</internalNodes>
          <leafValues>
            -8.6742913722991943e-01 2.1382290124893188e-01</leafValues></_>
        <_>
          <internalNodes>
            0 -1 20 3.4145228564739227e-02</internalNodes>
          <leafValues>
            -7.3879802227020264e-01 5.3223413228988647e-01</leafValues></_>
        <_>
          <internalNodes>
            0 -1 63 2.8030525892972946e-02</internalNodes>
          <leafValues>
            -7.5281655788421631e-01 4.2880246043205261e-01</leafValues></_>
        <_>
          <internalNodes>
            0 -1 43 2.3145684972405434e-02</internalNodes>
          <leafValues>
            -8.5330247879028320e-01 2.3904322087764740e-01</leafValues></_>
        <_>
          <internalNodes>
            0 -1 84 -2.9762545600533485e-03</internalNodes>
          <leafValues>
            4.0725323557853699e-01 -6.3400924205780029e-01</leafValues></_></weakClassifiers></_>
    <!-- stage 3 -->
    <_>
      <maxWeakCount>6</maxWeakCount>
      <stageThreshold>-1.6233597993850708e+00</stageThreshold>
      <weakClassifiers>
        <_>
          <internalNodes>
            0 -1 1 3.3742062747478485e-02</internalNodes>
          <leafValues>
            -8.4746187925338745e-01 4.8553055524826050e-01</leafValues></_>
        <_>
          <internalNodes>
            0 -1 64 7.6617952436208725e-03</internalNodes>
          <leafValues>
            -6.7640054225921631e-01 6.8707829713821411e-01</leafValues></_>
        <_>
          <internalNodes>
            0 -1 21 8.9453824330121279e-04</internalNodes>
          <leafValues>
            -6.6208690404891968e-01 4.7889339923858643e-01</leafValues></_>
        <_>
          <internalNodes>
            0 -1 7 -1.2596029043197632e-01</internalNodes>
          <leafValues>
            3.0261707305908203e-01 -8.6920976638793945e-01</leafValues></_>
        <_>
          <internalNodes>
            0 -1 56 5.1698245108127594e-02</internalNodes>
          <leafValues>
            -3.0684098601341248e-01 8.8369482755661011e-01</leafValues></_>
        <_>
          <internalNodes>
            0 -1 14 -4.0144309401512146e-02</internalNodes>
          <leafValues>
            5.9766006469726563e-01 -3.8024953007698059e-01</leafValues></_></weakClassifiers></_>
    <!-- stage 4 -->
    <_>
      <maxWeakCount>4</maxWeakCount>
      <stageThreshold>-2.0061602592468262e+00</stageThreshold>
      <weakClassifiers>
        <_>
          <internalNodes>
            0 -1 76 5.3207773715257645e-02</internalNodes>
          <leafValues>
            -9.2288762331008911e-01 2.0980091392993927e-01</leafValues></_>
        <_>
          <internalNodes>
            0 -1 65 -1.2671194781432860e-05</internalNodes>
          <leafValues>
            4.7326326370239258e-01 -8.3599209785461426e-01</leafValues></_>
        <_>
          <internalNodes>
            0 -1 75 -1.1378464478184469e-05</internalNodes>
          <leafValues>
            6.1849683523178101e-01 -6.9195401668548584e-01</leafValues></_>
        <_>
          <internalNodes>
            0 -1 86 -1.1961972631979734e-05</internalNodes>
          <leafValues>
            5.9779083728790283e-01 -6.8801498413085938e-01</leafValues></_></weakClassifiers></_>
    <!-- stage 5 -->
    <_>
      <maxWeakCount>4</maxWeakCount>
      <stageThreshold>-1.8651725053787231e+00</stageThreshold>
      <weakClassifiers>
        <_>
          <internalNodes>
            0 -1 44 3.4279696643352509e-02</internalNodes>
          <leafValues>
            -8.8259738683700562e-01 3.4782609343528748e-01</leafValues></_>
        <_>
          <internalNodes>
            0 -1 72 -1.1218993677175604e-05</internalNodes>
          <leafValues>
            4.7014334797859192e-01 -7.9459875822067261e-01</leafValues></_>
        <_>
          <internalNodes>
            0 -1 57 1.1241709216847084e-05</internalNodes>
          <leafValues>
            -7.4823004007339478e-01 4.8499479889869690e-01</leafValues></_>
        <_>
          <internalNodes>
            0 -1 77 -1.4319024980068207e-02</internalNodes>
          <leafValues>
            5.6075680255889893e-01 -6.7297124862670898e-01</leafValues></_></weakClassifiers></_>
    <!-- stage 6 -->
    <_>
      <maxWeakCount>7</maxWeakCount>
      <stageThreshold>-2.1162886619567871e+00</stageThreshold>
      <weakClassifiers>
        <_>
          <internalNodes>
            0 -1 18 -5.2247647196054459e-02</internalNodes>
          <leafValues>
            6.5420562028884888e-01 -8.2470703125000000e-01</leafValues></_>
        <_>
          <internalNodes>
            0 -1 32 8.4498040378093719e-03</internalNodes>
          <leafValues>
            -6.6191023588180542e-01 5.6038153171539307e-01</leafValues></_>
        <_>
          <internalNodes>
            0 -1 40 -1.2193089351058006e-02</internalNodes>
          <leafValues>
            2.8124544024467468e-01 -7.7154040336608887e-01</leafValues></_>
        <_>
          <internalNodes>
            0 -1 61 1.1430711310822517e-05</internalNodes>
          <leafValues>
            -4.9074852466583252e-01 4.5000675320625305e-01</leafValues></_>
        <_>
          <internalNodes>
            0 -1 82 1.2525756843388081e-02</internalNodes>
          <leafValues>
            -4.4135153293609619e-01 4.7542300820350647e-01</leafValues></_>
        <_>
          <internalNodes>
            0 -1 58 -3.2844029366970062e-02</internalNodes>
          <leafValues>
            7.0998710393905640e-01 -3.1225082278251648e-01</leafValues></_>
        <_>
          <internalNodes>
            0 -1 11 1.2971418982488103e-05</internalNodes>
          <leafValues>
            -5.7677340507507324e-01 4.3221458792686462e-01</leafValues></_></weakClassifiers></_>
    <!-- stage 7 -->
    <_>
      <maxWeakCount>6</maxWeakCount>
      <stageThreshold>-1.8511866331100464e+00</stageThreshold>
      <weakClassifiers>
        <_>
          <internalNodes>
            0 -1 49 1.4299747347831726e-01</internalNodes>
          <leafValues>
            -8.3106267452239990e-01 4.2857143282890320e-01</leafValues></_>
        <_>
          <internalNodes>
            0 -1 53 7.5287237763404846e-02</internalNodes>
          <leafValues>
            -6.4057713747024536e-01 5.4680812358856201e-01</leafValues></_>
        <_>
          <internalNodes>
            0 -1 5 1.6927567124366760e-01</internalNodes>
          <leafValues>
            -8.8828343152999878e-01 2.0659071207046509e-01</leafValues></_>
        <_>
          <internalNodes>
            0 -1 66 1.1481331966933794e-05</internalNodes>
          <leafValues>
            -6.3437455892562866e-01 3.3865365386009216e-01</leafValues></_>
        <_>
          <internalNodes>
            0 -1 38 -7.7800285071134567e-03</internalNodes>
          <leafValues>
            5.3662681579589844e-01 -4.1773664951324463e-01</leafValues></_>
        <_>
          <internalNodes>
            0 -1 83 7.2201676666736603e-03</internalNodes>
          <leafValues>
            -3.6654388904571533e-01 7.2882223129272461e-01</leafValues></_></weakClassifiers></_>
    <!-- stage 8 -->
    <_>
      <maxWeakCount>7</maxWeakCount>
      <stageThreshold>-1.8076566457748413e+00</stageThreshold>
      <weakClassifiers>
        <_>
          <internalNodes>
            0 -1 35 1.7292001843452454e-01</internalNodes>
          <leafValues>
            -8.2457852363586426e-01 6.3133639097213745e-01</leafValues></_>
        <_>
          <internalNodes>
            0 -1 81 1.8133809790015221e-02</internalNodes>
          <leafValues>
            -6.0191822052001953e-01 4.5945388078689575e-01</leafValues></_>
        <_>
          <internalNodes>
            0 -1 33 1.1490507982671261e-02</internalNodes>
          <leafValues>
            -4.8476848006248474e-01 4.9619859457015991e-01</leafValues></_>
        <_>
          <internalNodes>
            0 -1 39 -3.4992136061191559e-02</internalNodes>
          <leafValues>
            7.4240708351135254e-01 -3.1266686320304871e-01</leafValues></_>
        <_>
          <internalNodes>
            0 -1 15 3.9097741246223450e-03</internalNodes>
          <leafValues>
            -2.3995475471019745e-01 7.3562866449356079e-01</leafValues></_>
        <_>
          <internalNodes>
            0 -1 25 -1.2414952367544174e-01</internalNodes>
          <leafValues>
            2.3894745111465454e-01 -9.6493732929229736e-01</leafValues></_>
        <_>
          <internalNodes>
            0 -1 27 -3.6474885419011116e-03</internalNodes>
          <leafValues>
            4.1728267073631287e-01 -5.4294538497924805e-01</leafValues></_></weakClassifiers></_>
    <!-- stage 9 -->
    <_>
      <maxWeakCount>6</maxWeakCount>
      <stageThreshold>-1.7797932624816895e+00</stageThreshold>
      <weakClassifiers>
        <_>
          <internalNodes>
            0 -1 48 9.5966249704360962e-02</internalNodes>
          <leafValues>
            -8.2728844881057739e-01 4.4747081398963928e-01</leafValues></_>
        <_>
          <internalNodes>
            0 -1 51 7.6768115162849426e-02</internalNodes>
          <leafValues>
            -5.6827366352081299e-01 5.6091797351837158e-01</leafValues></_>
        <_>
          <internalNodes>
            0 -1 30 -9.1624528169631958e-02</internalNodes>
          <leafValues>
            4.5897015929222107e-01 -4.6268308162689209e-01</leafValues></_>
        <_>
          <internalNodes>
            0 -1 42 -1.9696600735187531e-02</internalNodes>
          <leafValues>
            5.1691985130310059e-01 -4.6644198894500732e-01</leafValues></_>
        <_>
          <internalNodes>
            0 -1 47 -1.8414363265037537e-02</internalNodes>
          <leafValues>
            5.4042273759841919e-01 -3.8609522581100464e-01</leafValues></_>
        <_>
          <internalNodes>
            0 -1 71 3.5633018705993891e-03</internalNodes>
          <leafValues>
            -9.1718208789825439e-01 2.4744026362895966e-01</leafValues></_></weakClassifiers></_>
    <!-- stage 10 -->
    <_>
      <maxWeakCount>7</maxWeakCount>
      <stageThreshold>-1.8054364919662476e+00</stageThreshold>
      <weakClassifiers>
        <_>
          <internalNodes>
            0 -1 55 -4.4401042163372040e-02</internalNodes>
          <leafValues>
            8.8811188936233521e-01 -8.0753540992736816e-01</leafValues></_>
        <_>
          <internalNodes>
            0 -1 67 2.6138093322515488e-02</internalNodes>
          <leafValues>
            -7.1602761745452881e-01 3.0908867716789246e-01</leafValues></_>
        <_>
          <internalNodes>
            0 -1 69 1.1616928532021120e-05</internalNodes>
          <leafValues>
            -5.7603847980499268e-01 3.3704832196235657e-01</leafValues></_>
        <_>
          <internalNodes>
            0 -1 46 -7.3222424834966660e-03</internalNodes>
          <leafValues>
            -9.2599272727966309e-01 1.8438658118247986e-01</leafValues></_>
        <_>
          <internalNodes>
            0 -1 80 -3.6363899707794189e-03</internalNodes>
          <leafValues>
            5.7931286096572876e-01 -3.7248840928077698e-01</leafValues></_>
        <_>
          <internalNodes>
            0 -1 68 1.1152466868225019e-05</internalNodes>
          <leafValues>
            -4.5923152565956116e-01 4.0941047668457031e-01</leafValues></_>
        <_>
          <internalNodes>
            0 -1 45 -4.6641868539154530e-03</internalNodes>
          <leafValues>
            2.0061609148979187e-01 -8.4023040533065796e-01</leafValues></_></weakClassifiers></_>
    <!-- stage 11 -->
    <_>
      <maxWeakCount>6</maxWeakCount>
      <stageThreshold>-1.7792446613311768e+00</stageThreshold>
      <weakClassifiers>
        <_>
          <internalNodes>
            0 -1 17 -5.3995221853256226e-02</internalNodes>
          <leafValues>
            7.5155282020568848e-01 -8.0959266424179077e-01</leafValues></_>
        <_>
          <internalNodes>
            0 -1 26 7.6743707060813904e-02</internalNodes>
          <leafValues>
            -5.3917372226715088e-01 5.8567762374877930e-01</leafValues></_>
        <_>
          <internalNodes>
            0 -1 10 2.5302512571215630e-02</internalNodes>
          <leafValues>
            -4.9777787923812866e-01 6.4050245285034180e-01</leafValues></_>
        <_>
          <internalNodes>
            0 -1 78 1.1218993677175604e-05</internalNodes>
          <leafValues>
            -5.0276052951812744e-01 5.1277530193328857e-01</leafValues></_>
        <_>
          <internalNodes>
            0 -1 36 -1.8768375739455223e-03</internalNodes>
          <leafValues>
            -8.1971204280853271e-01 2.4245977401733398e-01</leafValues></_>
        <_>
          <internalNodes>
            0 -1 22 -7.1931593120098114e-03</internalNodes>
          <leafValues>
            3.2760027050971985e-01 -5.4179763793945313e-01</leafValues></_></weakClassifiers></_>
    <!-- stage 12 -->
    <_>
      <maxWeakCount>9</maxWeakCount>
      <stageThreshold>-1.7170095443725586e+00</stageThreshold>
      <weakClassifiers>
        <_>
          <internalNodes>
            0 -1 52 -1.3538211584091187e-02</internalNodes>
          <leafValues>
            4.6938776969909668e-01 -8.2484626770019531e-01</leafValues></_>
        <_>
          <internalNodes>
            0 -1 8 1.4938189415261149e-03</internalNodes>
          <leafValues>
            -6.1829042434692383e-01 2.9686105251312256e-01</leafValues></_>
        <_>
          <internalNodes>
            0 -1 70 2.4556496739387512e-01</internalNodes>
          <leafValues>
            -3.6446329951286316e-01 7.8614896535873413e-01</leafValues></_>
        <_>
          <internalNodes>
            0 -1 12 1.3228514231741428e-02</internalNodes>
          <leafValues>
            -2.8234019875526428e-01 6.7507076263427734e-01</leafValues></_>
        <_>
          <internalNodes>
            0 -1 37 1.1602382073760964e-05</internalNodes>
          <leafValues>
            -5.8099967241287231e-01 3.4799882769584656e-01</leafValues></_>
        <_>
          <internalNodes>
            0 -1 60 5.7319854386150837e-03</internalNodes>
          <leafValues>
            -3.0929851531982422e-01 6.3488042354583740e-01</leafValues></_>
        <_>
          <internalNodes>
            0 -1 62 -4.1649243794381618e-03</internalNodes>
          <leafValues>
            8.2332849502563477e-01 -2.1182794868946075e-01</leafValues></_>
        <_>
          <internalNodes>
            0 -1 13 1.8997374176979065e-01</internalNodes>
          <leafValues>
            2.2123266756534576e-01 -9.8288184404373169e-01</leafValues></_>
        <_>
          <internalNodes>
            0 -1 50 1.4900030195713043e-01</internalNodes>
          <leafValues>
            -3.5880285501480103e-01 5.7403546571731567e-01</leafValues></_></weakClassifiers></_>
    <!-- stage 13 -->
    <_>
      <maxWeakCount>7</maxWeakCount>
      <stageThreshold>-1.5980381965637207e+00</stageThreshold>
      <weakClassifiers>
        <_>
          <internalNodes>
            0 -1 3 1.1746116727590561e-01</internalNodes>
          <leafValues>
            -8.4165406227111816e-01 2.9069766402244568e-01</leafValues></_>
        <_>
          <internalNodes>
            0 -1 54 1.2569229304790497e-01</internalNodes>
          <leafValues>
            -5.4689764976501465e-01 7.0809102058410645e-01</leafValues></_>
        <_>
          <internalNodes>
            0 -1 85 -3.7884747143834829e-04</internalNodes>
          <leafValues>
            3.4798154234886169e-01 -6.1464613676071167e-01</leafValues></_>
        <_>
          <internalNodes>
            0 -1 23 4.1628587990999222e-02</internalNodes>
          <leafValues>
            -7.9223942756652832e-01 2.4351444840431213e-01</leafValues></_>
        <_>
          <internalNodes>
            0 -1 0 3.5413226578384638e-04</internalNodes>
          <leafValues>
            2.4913080036640167e-01 -7.2104972600936890e-01</leafValues></_>
        <_>
          <internalNodes>
            0 -1 29 1.6436368227005005e-02</internalNodes>
          <leafValues>
            -5.4272085428237915e-01 3.6099627614021301e-01</leafValues></_>
        <_>
          <internalNodes>
            0 -1 16 4.3454170227050781e-02</internalNodes>
          <leafValues>
            -3.7535560131072998e-01 5.4122292995452881e-01</leafValues></_></weakClassifiers></_>
    <!-- stage 14 -->
    <_>
      <maxWeakCount>5</maxWeakCount>
      <stageThreshold>-1.6866942644119263e+00</stageThreshold>
      <weakClassifiers>
        <_>
          <internalNodes>
            0 -1 2 2.2222278639674187e-02</internalNodes>
          <leafValues>
            -8.1152087450027466e-01 8.0124223232269287e-01</leafValues></_>
        <_>
          <internalNodes>
            0 -1 24 4.1763642802834511e-03</internalNodes>
          <leafValues>
            -5.1413154602050781e-01 5.2099221944808960e-01</leafValues></_>
        <_>
          <internalNodes>
            0 -1 31 1.9792899489402771e-02</internalNodes>
          <leafValues>
            -4.5459276437759399e-01 3.8634547591209412e-01</leafValues></_>
        <_>
          <internalNodes>
            0 -1 19 -7.1733511984348297e-02</internalNodes>
          <leafValues>
            7.0811271667480469e-01 -2.8705230355262756e-01</leafValues></_>
        <_>
          <internalNodes>
            0 -1 28 -5.7417820207774639e-03</internalNodes>
          <leafValues>
            4.4970819354057312e-01 -6.1456173658370972e-01</leafValues></_></weakClassifiers></_></stages>
  <features>
    <_>
      <rects>
        <_>
          0 0 4 2 -1.</_>
        <_>
          0 1 4 1 2.</_></rects>
      <tilted>0</tilted></_>
    <_>
      <rects>
        <_>
          0 3 1 18 -1.</_>
        <_>
          0 9 1 6 3.</_></rects>
      <tilted>0</tilted></_>
    <_>
      <rects>
        <_>
          0 3 6 3 -1.</_>
        <_>
          2 3 2 3 3.</_></rects>
      <tilted>0</tilted></_>
    <_>
      <rects>
        <_>
          0 3 3 21 -1.</_>
        <_>
          0 10 3 7 3.</_></rects>
      <tilted>0</tilted></_>
    <_>
      <rects>
        <_>
          0 3 16 14 -1.</_>
        <_>
          0 3 8 7 2.</_>
        <_>
          8 10 8 7 2.</_></rects>
      <tilted>0</tilted></_>
    <_>
      <rects>
        <_>
          0 3 23 21 -1.</_>
        <_>
          0 10 23 7 3.</_></rects>
      <tilted>0</tilted></_>
    <_>
      <rects>
        <_>
          0 5 16 12 -1.</_>
        <_>
          0 5 8 6 2.</_>
        <_>
          8 11 8 6 2.</_></rects>
      <tilted>0</tilted></_>
    <_>
      <rects>
        <_>
          0 12 24 12 -1.</_>
        <_>
          0 18 24 6 2.</_></rects>
      <tilted>0</tilted></_>
    <_>
      <rects>
        <_>
          0 14 3 5 -1.</_>
        <_>
          1 14 1 5 3.</_></rects>
      <tilted>0</tilted></_>
    <_>
      <rects>
        <_>
          0 14 2 7 -1.</_>
        <_>
          1 14 1 7 2.</_></rects>
      <tilted>0</tilted></_>
    <_>
      <rects>
        <_>
          0 14 9 8 -1.</_>
        <_>
          3 14 3 8 3.</_></rects>
      <tilted>0</tilted></_>
    <_>
      <rects>
        <_>
          0 14 8 2 -1.</_>
        <_>
          0 14 4 1 2.</_>
        <_>
          4 15 4 1 2.</_></rects>
      <tilted>0</tilted></_>
    <_>
      <rects>
        <_>
          0 16 4 7 -1.</_>
        <_>
          2 16 2 7 2.</_></rects>
      <tilted>0</tilted></_>
    <_>
      <rects>
        <_>
          1 1 15 18 -1.</_>
        <_>
          1 10 15 9 2.</_></rects>
      <tilted>0</tilted></_>
    <_>
      <rects>
        <_>
          1 4 9 16 -1.</_>
        <_>
          4 4 3 16 3.</_></rects>
      <tilted>0</tilted></_>
    <_>
      <rects>
        <_>
          1 5 4 4 -1.</_>
        <_>
          1 5 2 2 2.</_>
        <_>
          3 7 2 2 2.</_></rects>
      <tilted>0</tilted></_>
    <_>
      <rects>
        <_>
          1 7 10 10 -1.</_>
        <_>
          1 7 5 5 2.</_>
        <_>
          6 12 5 5 2.</_></rects>
      <tilted>0</tilted></_>
    <_>
      <rects>
        <_>
          1 8 8 6 -1.</_>
        <_>
          1 8 4 3 2.</_>
        <_>
          5 11 4 3 2.</_></rects>
      <tilted>0</tilted></_>
    <_>
      <rects>
        <_>
          1 8 10 6 -1.</_>
        <_>
          1 8 5 3 2.</_>
        <_>
          6 11 5 3 2.</_></rects>
      <tilted>0</tilted></_>
    <_>
      <rects>
        <_>
          1 13 18 7 -1.</_>
        <_>
          10 13 9 7 2.</_></rects>
      <tilted>0</tilted></_>
    <_>
      <rects>
        <_>
          2 6 14 6 -1.</_>
        <_>
          2 6 7 3 2.</_>
        <_>
          9 9 7 3 2.</_></rects>
      <tilted>0</tilted></_>
    <_>
      <rects>
        <_>
          2 22 22 2 -1.</_>
        <_>
          2 23 22 1 2.</_></rects>
      <tilted>0</tilted></_>
    <_>
      <rects>
        <_>
          3 0 12 23 -1.</_>
        <_>
          7 0 4 23 3.</_></rects>
      <tilted>0</tilted></_>
    <_>
      <rects>
        <_>
          3 0 21 18 -1.</_>
        <_>
          10 0 7 18 3.</_></rects>
      <tilted>0</tilted></_>
    <_>
      <rects>
        <_>
          3 3 4 4 -1.</_>
        <_>
          3 3 2 2 2.</_>
        <_>
          5 5 2 2 2.</_></rects>
      <tilted>0</tilted></_>
    <_>
      <rects>
        <_>
          3 10 21 14 -1.</_>
        <_>
          3 17 21 7 2.</_></rects>
      <tilted>0</tilted></_>
    <_>
      <rects>
        <_>
          3 11 10 8 -1.</_>
        <_>
          8 11 5 8 2.</_></rects>
      <tilted>0</tilted></_>
    <_>
      <rects>
        <_>
          4 1 1 18 -1.</_>
        <_>
          4 7 1 6 3.</_></rects>
      <tilted>0</tilted></_>
    <_>
      <rects>
        <_>
          4 2 3 8 -1.</_>
        <_>
          4 6 3 4 2.</_></rects>
      <tilted>0</tilted></_>
    <_>
      <rects>
        <_>
          4 2 20 4 -1.</_>
        <_>
          4 4 20 2 2.</_></rects>
      <tilted>0</tilted></_>
    <_>
      <rects>
        <_>
          4 3 20 20 -1.</_>
        <_>
          14 3 10 20 2.</_></rects>
      <tilted>0</tilted></_>
    <_>
      <rects>
        <_>
          4 7 10 6 -1.</_>
        <_>
          4 7 5 3 2.</_>
        <_>
          9 10 5 3 2.</_></rects>
      <tilted>0</tilted></_>
    <_>
      <rects>
        <_>
          4 8 4 8 -1.</_>
        <_>
          4 8 2 4 2.</_>
        <_>
          6 12 2 4 2.</_></rects>
      <tilted>0</tilted></_>
    <_>
      <rects>
        <_>
          4 8 12 4 -1.</_>
        <_>
          4 8 6 2 2.</_>
        <_>
          10 10 6 2 2.</_></rects>
      <tilted>0</tilted></_>
    <_>
      <rects>
        <_>
          4 10 10 3 -1.</_>
        <_>
          9 10 5 3 2.</_></rects>
      <tilted>0</tilted></_>
    <_>
      <rects>
        <_>
          4 15 17 9 -1.</_>
        <_>
          4 18 17 3 3.</_></rects>
      <tilted>0</tilted></_>
    <_>
      <rects>
        <_>
          4 18 6 1 -1.</_>
        <_>
          7 18 3 1 2.</_></rects>
      <tilted>0</tilted></_>
    <_>
      <rects>
        <_>
          4 22 7 2 -1.</_>
        <_>
          4 23 7 1 2.</_></rects>
      <tilted>0</tilted></_>
    <_>
      <rects>
        <_>
          5 2 3 8 -1.</_>
        <_>
          5 6 3 4 2.</_></rects>
      <tilted>0</tilted></_>
    <_>
      <rects>
        <_>
          5 6 17 6 -1.</_>
        <_>
          5 9 17 3 2.</_></rects>
      <tilted>0</tilted></_>
    <_>
      <rects>
        <_>
          5 22 18 2 -1.</_>
        <_>
          11 22 6 2 3.</_></rects>
      <tilted>0</tilted></_>
    <_>
      <rects>
        <_>
          5 23 18 1 -1.</_>
        <_>
          11 23 6 1 3.</_></rects>
      <tilted>0</tilted></_>
    <_>
      <rects>
        <_>
          6 0 11 9 -1.</_>
        <_>
          6 3 11 3 3.</_></rects>
      <tilted>0</tilted></_>
    <_>
      <rects>
        <_>
          6 3 18 18 -1.</_>
        <_>
          12 3 6 18 3.</_></rects>
      <tilted>0</tilted></_>
    <_>
      <rects>
        <_>
          6 11 3 12 -1.</_>
        <_>
          6 15 3 4 3.</_></rects>
      <tilted>0</tilted></_>
    <_>
      <rects>
        <_>
          6 23 18 1 -1.</_>
        <_>
          12 23 6 1 3.</_></rects>
      <tilted>0</tilted></_>
    <_>
      <rects>
        <_>
          7 0 9 6 -1.</_>
        <_>
          10 0 3 6 3.</_></rects>
      <tilted>0</tilted></_>
    <_>
      <rects>
        <_>
          7 3 2 12 -1.</_>
        <_>
          7 7 2 4 3.</_></rects>
      <tilted>0</tilted></_>
    <_>
      <rects>
        <_>
          7 3 6 12 -1.</_>
        <_>
          7 7 6 4 3.</_></rects>
      <tilted>0</tilted></_>
    <_>
      <rects>
        <_>
          7 3 11 12 -1.</_>
        <_>
          7 7 11 4 3.</_></rects>
      <tilted>0</tilted></_>
    <_>
      <rects>
        <_>
          7 3 11 14 -1.</_>
        <_>
          7 10 11 7 2.</_></rects>
      <tilted>0</tilted></_>
    <_>
      <rects>
        <_>
          7 8 12 4 -1.</_>
        <_>
          13 8 6 4 2.</_></rects>
      <tilted>0</tilted></_>
    <_>
      <rects>
        <_>
          7 10 2 6 -1.</_>
        <_>
          7 12 2 2 3.</_></rects>
      <tilted>0</tilted></_>
    <_>
      <rects>
        <_>
          8 5 10 8 -1.</_>
        <_>
          13 5 5 8 2.</_></rects>
      <tilted>0</tilted></_>
    <_>
      <rects>
        <_>
          8 5 16 5 -1.</_>
        <_>
          16 5 8 5 2.</_></rects>
      <tilted>0</tilted></_>
    <_>
      <rects>
        <_>
          8 10 3 9 -1.</_>
        <_>
          8 13 3 3 3.</_></rects>
      <tilted>0</tilted></_>
    <_>
      <rects>
        <_>
          8 15 7 9 -1.</_>
        <_>
          8 18 7 3 3.</_></rects>
      <tilted>0</tilted></_>
    <_>
      <rects>
        <_>
          9 2 1 2 -1.</_>
        <_>
          9 3 1 1 2.</_></rects>
      <tilted>0</tilted></_>
    <_>
      <rects>
        <_>
          9 4 3 12 -1.</_>
        <_>
          9 8 3 4 3.</_></rects>
      <tilted>0</tilted></_>
    <_>
      <rects>
        <_>
          9 8 12 6 -1.</_>
        <_>
          13 8 4 6 3.</_></rects>
      <tilted>0</tilted></_>
    <_>
      <rects>
        <_>
          9 10 1 6 -1.</_>
        <_>
          9 12 1 2 3.</_></rects>
      <tilted>0</tilted></_>
    <_>
      <rects>
        <_>
          9 19 2 1 -1.</_>
        <_>
          10 19 1 1 2.</_></rects>
      <tilted>0</tilted></_>
    <_>
      <rects>
        <_>
          9 21 3 2 -1.</_>
        <_>
          9 22 3 1 2.</_></rects>
      <tilted>0</tilted></_>
    <_>
      <rects>
        <_>
          10 1 13 6 -1.</_>
        <_>
          10 4 13 3 2.</_></rects>
      <tilted>0</tilted></_>
    <_>
      <rects>
        <_>
          10 11 2 6 -1.</_>
        <_>
          10 13 2 2 3.</_></rects>
      <tilted>0</tilted></_>
    <_>
      <rects>
        <_>
          10 23 2 1 -1.</_>
        <_>
          11 23 1 1 2.</_></rects>
      <tilted>0</tilted></_>
    <_>
      <rects>
        <_>
          11 1 1 2 -1.</_>
        <_>
          11 2 1 1 2.</_></rects>
      <tilted>0</tilted></_>
    <_>
      <rects>
        <_>
          11 1 6 15 -1.</_>
        <_>
          14 1 3 15 2.</_></rects>
      <tilted>0</tilted></_>
    <_>
      <rects>
        <_>
          11 8 1 3 -1.</_>
        <_>
          11 9 1 1 3.</_></rects>
      <tilted>0</tilted></_>
    <_>
      <rects>
        <_>
          12 1 1 2 -1.</_>
        <_>
          12 2 1 1 2.</_></rects>
      <tilted>0</tilted></_>
    <_>
      <rects>
        <_>
          12 3 6 21 -1.</_>
        <_>
          12 10 6 7 3.</_></rects>
      <tilted>0</tilted></_>
    <_>
      <rects>
        <_>
          13 2 10 4 -1.</_>
        <_>
          13 4 10 2 2.</_></rects>
      <tilted>0</tilted></_>
    <_>
      <rects>
        <_>
          13 3 2 1 -1.</_>
        <_>
          14 3 1 1 2.</_></rects>
      <tilted>0</tilted></_>
    <_>
      <rects>
        <_>
          13 7 1 12 -1.</_>
        <_>
          13 11 1 4 3.</_></rects>
      <tilted>0</tilted></_>
    <_>
      <rects>
        <_>
          13 10 11 14 -1.</_>
        <_>
          13 17 11 7 2.</_></rects>
      <tilted>0</tilted></_>
    <_>
      <rects>
        <_>
          14 3 2 1 -1.</_>
        <_>
          15 3 1 1 2.</_></rects>
      <tilted>0</tilted></_>
    <_>
      <rects>
        <_>
          14 3 3 15 -1.</_>
        <_>
          14 8 3 5 3.</_></rects>
      <tilted>0</tilted></_>
    <_>
      <rects>
        <_>
          14 5 8 8 -1.</_>
        <_>
          14 5 4 4 2.</_>
        <_>
          18 9 4 4 2.</_></rects>
      <tilted>0</tilted></_>
    <_>
      <rects>
        <_>
          14 13 2 2 -1.</_>
        <_>
          15 13 1 2 2.</_></rects>
      <tilted>0</tilted></_>
    <_>
      <rects>
        <_>
          15 2 8 12 -1.</_>
        <_>
          15 6 8 4 3.</_></rects>
      <tilted>0</tilted></_>
    <_>
      <rects>
        <_>
          16 13 6 4 -1.</_>
        <_>
          16 13 3 2 2.</_>
        <_>
          19 15 3 2 2.</_></rects>
      <tilted>0</tilted></_>
    <_>
      <rects>
        <_>
          19 0 1 15 -1.</_>
        <_>
          19 5 1 5 3.</_></rects>
      <tilted>0</tilted></_>
    <_>
      <rects>
        <_>
          21 2 2 12 -1.</_>
        <_>
          21 6 2 4 3.</_></rects>
      <tilted>0</tilted></_>
    <_>
      <rects>
        <_>
          21 4 3 13 -1.</_>
        <_>
          22 4 1 13 3.</_></rects>
      <tilted>0</tilted></_>
    <_>
      <rects>
        <_>
          21 14 3 4 -1.</_>
        <_>
          21 16 3 2 2.</_></rects>
      <tilted>0</tilted></_>
    <_>
      <rects>
        <_>
          22 16 2 2 -1.</_>
        <_>
          22 17 2 1 2.</_></rects>
      <tilted>0</tilted></_>
    <_>
      <rects>
        <_>
          22 17 1 2 -1.</_>
        <_>
          22 18 1 1 2.</_></rects>
      <tilted>0</tilted></_></features></cascade>
</opencv_storage>
